digraph Tree {
node [shape=box, style="filled", color="black"] ;
graph [ranksep=equally, splines=polyline] ;
0 [label="age <= -0.453\nentropy = 0.604\nsamples = 1400\nvalue = [1193, 207]\nclass = 0", fillcolor="#ea975b"] ;
1 [label="loan <= -0.248\nentropy = 0.965\nsamples = 531\nvalue = [324, 207]\nclass = 0", fillcolor="#f6d2b8"] ;
0 -> 1 [labeldistance=2.5, labelangle=45, headlabel="True"] ;
2 [label="income <= -1.241\nentropy = 0.282\nsamples = 245\nvalue = [233, 12]\nclass = 0", fillcolor="#e68743"] ;
1 -> 2 ;
3 [label="loan <= -0.642\nentropy = 0.722\nsamples = 60\nvalue = [48, 12]\nclass = 0", fillcolor="#eca06a"] ;
2 -> 3 ;
4 [label="entropy = 0.0\nsamples = 42\nvalue = [42, 0]\nclass = 0", fillcolor="#e58139"] ;
3 -> 4 ;
5 [label="loan <= -0.487\nentropy = 0.918\nsamples = 18\nvalue = [6, 12]\nclass = 1", fillcolor="#9ccef2"] ;
3 -> 5 ;
6 [label="income <= -1.64\nentropy = 0.971\nsamples = 10\nvalue = [6, 4]\nclass = 0", fillcolor="#f6d5bd"] ;
5 -> 6 ;
7 [label="entropy = 0.0\nsamples = 4\nvalue = [0, 4]\nclass = 1", fillcolor="#399de5"] ;
6 -> 7 ;
8 [label="entropy = 0.0\nsamples = 6\nvalue = [6, 0]\nclass = 0", fillcolor="#e58139"] ;
6 -> 8 ;
9 [label="entropy = 0.0\nsamples = 8\nvalue = [0, 8]\nclass = 1", fillcolor="#399de5"] ;
5 -> 9 ;
10 [label="entropy = 0.0\nsamples = 185\nvalue = [185, 0]\nclass = 0", fillcolor="#e58139"] ;
2 -> 10 ;
11 [label="loan <= 1.074\nentropy = 0.902\nsamples = 286\nvalue = [91, 195]\nclass = 1", fillcolor="#95cbf1"] ;
1 -> 11 ;
12 [label="income <= 0.109\nentropy = 0.994\nsamples = 198\nvalue = [90, 108]\nclass = 1", fillcolor="#deeffb"] ;
11 -> 12 ;
13 [label="loan <= 0.14\nentropy = 0.519\nsamples = 103\nvalue = [12, 91]\nclass = 1", fillcolor="#53aae8"] ;
12 -> 13 ;
14 [label="income <= -0.867\nentropy = 0.909\nsamples = 37\nvalue = [12, 25]\nclass = 1", fillcolor="#98ccf1"] ;
13 -> 14 ;
15 [label="entropy = 0.0\nsamples = 24\nvalue = [0, 24]\nclass = 1", fillcolor="#399de5"] ;
14 -> 15 ;
16 [label="income <= -0.705\nentropy = 0.391\nsamples = 13\nvalue = [12, 1]\nclass = 0", fillcolor="#e78c49"] ;
14 -> 16 ;
17 [label="income <= -0.851\nentropy = 1.0\nsamples = 2\nvalue = [1, 1]\nclass = 0", fillcolor="#ffffff"] ;
16 -> 17 ;
18 [label="entropy = 0.0\nsamples = 1\nvalue = [1, 0]\nclass = 0", fillcolor="#e58139"] ;
17 -> 18 ;
19 [label="entropy = 0.0\nsamples = 1\nvalue = [0, 1]\nclass = 1", fillcolor="#399de5"] ;
17 -> 19 ;
20 [label="entropy = 0.0\nsamples = 11\nvalue = [11, 0]\nclass = 0", fillcolor="#e58139"] ;
16 -> 20 ;
21 [label="entropy = 0.0\nsamples = 66\nvalue = [0, 66]\nclass = 1", fillcolor="#399de5"] ;
13 -> 21 ;
22 [label="income <= 0.893\nentropy = 0.678\nsamples = 95\nvalue = [78, 17]\nclass = 0", fillcolor="#eb9c64"] ;
12 -> 22 ;
23 [label="loan <= 0.46\nentropy = 0.962\nsamples = 44\nvalue = [27, 17]\nclass = 0", fillcolor="#f5d0b6"] ;
22 -> 23 ;
24 [label="entropy = 0.0\nsamples = 24\nvalue = [24, 0]\nclass = 0", fillcolor="#e58139"] ;
23 -> 24 ;
25 [label="loan <= 0.655\nentropy = 0.61\nsamples = 20\nvalue = [3, 17]\nclass = 1", fillcolor="#5caeea"] ;
23 -> 25 ;
26 [label="income <= 0.432\nentropy = 1.0\nsamples = 6\nvalue = [3, 3]\nclass = 0", fillcolor="#ffffff"] ;
25 -> 26 ;
27 [label="entropy = 0.0\nsamples = 3\nvalue = [0, 3]\nclass = 1", fillcolor="#399de5"] ;
26 -> 27 ;
28 [label="entropy = 0.0\nsamples = 3\nvalue = [3, 0]\nclass = 0", fillcolor="#e58139"] ;
26 -> 28 ;
29 [label="entropy = 0.0\nsamples = 14\nvalue = [0, 14]\nclass = 1", fillcolor="#399de5"] ;
25 -> 29 ;
30 [label="entropy = 0.0\nsamples = 51\nvalue = [51, 0]\nclass = 0", fillcolor="#e58139"] ;
22 -> 30 ;
31 [label="income <= 1.683\nentropy = 0.09\nsamples = 88\nvalue = [1, 87]\nclass = 1", fillcolor="#3b9ee5"] ;
11 -> 31 ;
32 [label="entropy = 0.0\nsamples = 85\nvalue = [0, 85]\nclass = 1", fillcolor="#399de5"] ;
31 -> 32 ;
33 [label="age <= -1.457\nentropy = 0.918\nsamples = 3\nvalue = [1, 2]\nclass = 1", fillcolor="#9ccef2"] ;
31 -> 33 ;
34 [label="entropy = 0.0\nsamples = 1\nvalue = [1, 0]\nclass = 0", fillcolor="#e58139"] ;
33 -> 34 ;
35 [label="entropy = 0.0\nsamples = 2\nvalue = [0, 2]\nclass = 1", fillcolor="#399de5"] ;
33 -> 35 ;
36 [label="entropy = 0.0\nsamples = 869\nvalue = [869, 0]\nclass = 0", fillcolor="#e58139"] ;
0 -> 36 [labeldistance=2.5, labelangle=-45, headlabel="False"] ;
{rank=same ; 0} ;
{rank=same ; 1} ;
{rank=same ; 2; 11} ;
{rank=same ; 3; 12; 31} ;
{rank=same ; 5; 13; 22; 33} ;
{rank=same ; 6; 14; 23} ;
{rank=same ; 16; 25} ;
{rank=same ; 17; 26} ;
{rank=same ; 4; 7; 8; 9; 10; 15; 18; 19; 20; 21; 24; 27; 28; 29; 30; 32; 34; 35; 36} ;
}